<?xml version="1.0"?>
<opencv_storage>
<my_svm type_id="opencv-ml-svm">
  <svm_type>C_SVC</svm_type>
  <kernel><type>LINEAR</type></kernel>
  <C>1.0000000000000000e-02</C>
  <term_criteria><epsilon>1.1920928955078125e-07</epsilon>
    <iterations>1000</iterations></term_criteria>
  <var_all>504</var_all>
  <var_count>504</var_count>
  <class_count>2</class_count>
  <class_labels type_id="opencv-matrix">
    <rows>1</rows>
    <cols>2</cols>
    <dt>i</dt>
    <data>
      -1 1</data></class_labels>
  <sv_total>1</sv_total>
  <support_vectors>
    <_>
      2.90742833e-02 4.84702773e-02 3.74063887e-02 -2.64077187e-01
      -2.32077375e-01 4.97229807e-02 1.42694786e-01 1.50989547e-01
      2.81470418e-02 -1.36455417e-01 1.37299746e-01 1.48264229e-01
      1.04280584e-01 -4.58051898e-02 1.21904634e-01 1.49040192e-01
      6.00074716e-02 -3.47410113e-01 9.00151879e-02 7.07152039e-02
      1.07111074e-01 -2.76788890e-01 -2.61316150e-01 -1.14995614e-01
      9.61875394e-02 5.31562939e-02 4.54265401e-02 -6.14104271e-02
      4.68678586e-02 1.25409856e-01 4.74334396e-02 -2.15151235e-01
      2.19670665e-02 6.32099956e-02 -8.82749408e-02 -2.36122698e-01
      -9.97647494e-02 1.35409325e-01 1.29026532e-01 1.93605289e-01
      4.86086011e-02 -9.58814938e-03 7.95231387e-02 6.59905700e-03
      -4.66651320e-01 7.67497569e-02 1.21842794e-01 1.47582173e-01
      1.34577632e-01 -2.31965244e-01 -3.61505717e-01 1.00159934e-02
      1.66747198e-02 -1.42781064e-01 -5.86025380e-02 7.24395365e-02
      1.04460075e-01 1.12331495e-01 -1.88671369e-02 4.72026039e-03
      6.19039796e-02 -5.10312691e-02 -2.74666667e-01 1.37018338e-01
      1.23966224e-01 1.66741520e-01 -5.26699349e-02 -2.28564322e-01
      -2.33265251e-01 9.20488983e-02 9.15273726e-02 1.15410285e-02
      1.07746676e-01 6.77216947e-02 6.75278232e-02 -7.29151890e-02
      -4.21925485e-02 -1.19108036e-01 2.55779512e-02 -8.04975815e-03
      -1.32315123e-04 -1.44352272e-01 3.48696224e-02 6.00189529e-02
      -4.78469431e-02 -8.52201134e-02 -9.47089568e-02 -1.20295472e-02
      -9.70243365e-02 -2.66774148e-01 3.96077298e-02 1.49572846e-02
      -1.42920734e-02 -1.30922541e-01 -5.27396835e-02 -9.90602523e-02
      -1.75234713e-02 -6.19185120e-02 -4.71718200e-02 -1.35481730e-01
      -3.07150222e-02 -1.99075229e-02 -1.13320105e-01 -9.47759524e-02
      -9.94617566e-02 -5.53570166e-02 -1.51661903e-01 -2.18659863e-01
      -1.74898788e-01 -3.83718871e-03 -1.38678383e-02 -9.08521935e-02
      1.09478144e-03 -1.45807397e-02 -1.78638345e-03 -8.80512595e-02
      -2.87564397e-01 6.02977611e-02 5.49922884e-02 2.54528373e-02
      -9.53578651e-02 -8.95060599e-02 -4.54511605e-02 4.01285775e-02
      2.92253196e-02 -8.60687287e-04 -1.67648524e-01 -2.00449582e-02
      -3.46956067e-02 -7.38904104e-02 -1.67716965e-02 -1.69664603e-02
      -4.69010472e-02 -1.49669930e-01 -2.79244393e-01 6.12307116e-02
      6.96699247e-02 3.84520181e-02 -1.26453117e-01 -9.55485404e-02
      -4.83784713e-02 6.41897395e-02 5.97076677e-02 -3.22695286e-03
      7.60533207e-04 -1.27605107e-02 -2.38689668e-02 -1.74219683e-01
      -4.83686477e-02 -1.76735520e-02 4.66461256e-02 3.88669297e-02
      -2.48619216e-03 -1.36975378e-01 1.67831853e-02 4.57728058e-02
      -6.91897562e-03 -5.33666685e-02 -1.58838201e-02 3.58524323e-02
      -2.41200905e-02 -1.84420153e-01 -1.48397626e-03 -4.11939695e-02
      -7.61260837e-02 -2.43291870e-01 -4.69152443e-02 -1.02501906e-01
      -2.02950612e-02 -2.27733757e-02 -6.15857393e-02 -1.54375523e-01
      -1.47642167e-02 1.58258937e-02 -5.49230389e-02 -4.76901568e-02
      -4.15283721e-03 3.93710509e-02 -7.20614642e-02 -1.96190581e-01
      -1.11247234e-01 2.57280171e-02 4.70981561e-02 -1.46981999e-02
      3.89357843e-03 -9.49143171e-02 -1.07068196e-02 -2.09143925e-02
      -1.81727529e-01 6.81532845e-02 7.99646750e-02 6.69940785e-02
      -4.31911536e-02 -1.66283429e-01 -1.26131520e-01 4.82429676e-02
      3.32721509e-02 2.83402726e-02 -1.94404885e-01 1.34675186e-02
      1.65127311e-02 -6.09536693e-02 -9.22719110e-03 -2.81201694e-02
      9.54506733e-03 -5.58155887e-02 -2.48706594e-01 1.07186288e-02
      6.16320558e-02 1.48777496e-02 -1.03478275e-01 -1.55312240e-01
      -2.37312559e-02 5.55261075e-02 2.47617289e-02 -4.29030359e-02
      2.31470205e-02 -2.49379929e-02 -2.69343089e-02 -1.69073030e-01
      -1.93308089e-02 -1.97701603e-01 -1.05185896e-01 -6.12505861e-02
      -1.18289776e-02 -1.41358510e-01 -1.51366685e-02 2.22904552e-02
      -4.26004641e-02 -8.38534385e-02 -8.42851400e-02 -1.86746866e-02
      -5.16793393e-02 -1.76123738e-01 -2.59732511e-02 2.75204278e-04
      1.93327535e-02 -1.34936407e-01 -1.78611018e-02 -1.68581679e-01
      -7.67591596e-02 -4.41243649e-02 -2.27404181e-02 -1.82577595e-01
      -1.47038978e-02 7.85422549e-02 9.79296304e-03 1.74730141e-02
      -4.46390510e-02 -5.10856789e-03 -3.24410759e-02 -1.71278432e-01
      -1.65951952e-01 -2.68781167e-02 -8.18853732e-03 -8.25109184e-02
      -6.75743669e-02 -8.27517658e-02 2.72936374e-03 -3.52428593e-02
      -1.75723523e-01 3.39665338e-02 7.59501755e-02 5.95995821e-02
      -4.01281752e-02 -9.57261547e-02 -1.21990524e-01 6.96043372e-02
      4.30764295e-02 2.49284450e-02 -2.28969887e-01 -6.40731975e-02
      -2.62640882e-04 -6.30695373e-02 -1.84873957e-02 -6.55797049e-02
      -6.29187515e-03 -5.07678166e-02 -2.07342505e-01 1.32351639e-02
      5.28616048e-02 4.89704572e-02 -4.57593203e-02 -9.91347581e-02
      -8.98790732e-02 4.30720523e-02 -9.61521082e-03 -4.04934399e-03
      -9.86023527e-03 -2.97356825e-02 -4.51789685e-02 -9.65147093e-02
      -9.24297124e-02 -1.95743695e-01 -4.93480973e-02 -2.45380867e-03
      5.19362316e-02 -2.05331594e-01 -5.34818545e-02 9.74418712e-04
      2.33076327e-02 5.75533099e-02 1.21588055e-02 8.15982595e-02
      4.47565131e-02 -1.13404989e-01 -4.46742255e-04 -8.20306502e-03
      -5.51865064e-02 -1.42779648e-01 -7.20425025e-02 -2.09168941e-01
      -4.47978862e-02 5.32878097e-03 5.08538587e-03 -1.88918218e-01
      -3.17804106e-02 6.08365610e-03 -4.91005275e-03 2.04973649e-02
      1.31441755e-02 7.44092315e-02 2.69761086e-02 -1.51103348e-01
      -2.45684311e-01 -7.74589032e-02 6.64015859e-03 -4.35533188e-02
      2.11411808e-02 -3.12572941e-02 3.30622196e-02 -6.25712704e-03
      -1.39761120e-01 2.14474369e-02 4.98603657e-02 6.06026724e-02
      -7.15415552e-02 -1.39394730e-01 -1.07268348e-01 4.18678299e-02
      3.59954312e-02 6.77238628e-02 -2.38394544e-01 -6.14732541e-02
      3.70609021e-04 -2.13848185e-02 5.17278835e-02 -3.22252885e-02
      2.27865297e-03 -2.98150610e-02 -1.46084011e-01 1.69608332e-02
      3.94831486e-02 9.86955781e-03 -1.01564750e-01 -1.50777906e-01
      -9.95277315e-02 1.61979850e-02 3.54859047e-02 6.58799633e-02
      -6.50815591e-02 -1.90484636e-02 -3.54581093e-03 -6.79057613e-02
      -1.37362778e-01 -1.24320813e-01 2.03956030e-02 1.00947665e-02
      3.01034320e-02 -2.11419463e-01 -5.78156039e-02 1.57147311e-02
      4.69530150e-02 -6.07503280e-02 -2.58728508e-02 9.43560153e-03
      -5.10475896e-02 -1.75485462e-01 -4.92832586e-02 -2.17217002e-02
      5.85393223e-04 -3.11294030e-02 -6.04447275e-02 -1.15575694e-01
      1.52301872e-02 -1.00236181e-02 1.28348867e-04 -2.52888650e-01
      -1.07481271e-01 -2.21175384e-02 -8.45446717e-03 -5.35271689e-02
      -1.05112225e-01 3.90616176e-03 -6.79599345e-02 -2.08181798e-01
      -1.91465437e-01 -4.50854860e-02 3.17401113e-03 5.18647432e-02
      2.62785908e-02 -1.01882778e-02 1.12732854e-02 -5.49186841e-02
      -1.53365985e-01 7.25111645e-03 2.81159300e-02 3.36974412e-02
      -2.84402743e-02 -1.01062916e-01 -6.04312606e-02 4.09307554e-02
      3.81802283e-02 2.69186236e-02 -2.57718235e-01 -7.90465400e-02
      -8.06687400e-03 3.73111218e-02 -2.59734719e-04 -1.21864818e-01
      -3.69193777e-02 -5.42101450e-02 -1.82289198e-01 -2.89616431e-03
      -1.96844488e-02 6.20309776e-03 -3.01650856e-02 -7.19171762e-02
      -7.92192817e-02 -1.92864668e-02 4.88792583e-02 4.07299623e-02
      -8.72052088e-02 -4.01012041e-03 6.02356382e-02 -1.13436967e-01
      -2.81731397e-01 -1.30917266e-01 1.05477460e-01 5.69696687e-02
      4.31986265e-02 -3.25122178e-01 -8.49259123e-02 8.20908248e-02
      1.04464203e-01 -1.49076551e-01 3.63334715e-02 1.40360489e-01
      5.91822118e-02 -1.05207495e-01 7.60343373e-02 1.45527571e-01
      1.73133329e-01 4.46492620e-02 -2.47330472e-01 -2.10031942e-01
      8.07326362e-02 5.64540066e-02 6.02791421e-02 -3.61645788e-01
      1.06424741e-01 1.65339231e-01 1.48291886e-01 -1.24298185e-01
      2.92602815e-02 1.19432457e-01 7.17179254e-02 -1.92000389e-01
      -2.34985217e-01 -4.30966541e-02 8.89763385e-02 1.15544789e-01
      -7.99408406e-02 5.27789854e-02 1.07539713e-01 5.75739220e-02
      -4.37124707e-02 6.22389726e-02 4.10605334e-02 9.64766964e-02
      -8.51068422e-02 -2.51859426e-01 -8.82933140e-02 8.53484645e-02
      5.62982038e-02 1.35980263e-01 -4.45447981e-01 1.60808545e-02
      7.45316893e-02 -3.66197973e-02 -1.05475485e-01 1.80368289e-01
      1.28369361e-01 9.05755609e-02 -1.59539804e-01 -1.26034424e-01
      -3.06263696e-02 -8.31190404e-03 -3.02513510e-01 -2.09392101e-01
      1.54262692e-01 1.50320560e-01 1.23151362e-01 6.31380230e-02</_></support_vectors>
  <decision_functions>
    <_>
      <sv_count>1</sv_count>
      <rho>-4.2142476563470623e+00</rho>
      <alpha>
        1.</alpha>
      <index>
        0</index></_></decision_functions></my_svm>
</opencv_storage>
